digraph Tree {
node [shape=box, fontname="helvetica"] ;
edge [fontname="helvetica"] ;
0 [label="Na_to_K <= 14.829\ngini = 0.277\nsamples = 180\nvalue = [[158.0, 22.0]\n[167.0, 13.0]\n[165.0, 15.0]\n[133.0, 47.0]\n[97.0, 83.0]]"] ;
1 [label="BP_HIGH <= 0.5\ngini = 0.269\nsamples = 97\nvalue = [[75.0, 22.0]\n[84.0, 13.0]\n[82.0, 15.0]\n[50.0, 47.0]\n[97.0, 0.0]]"] ;
0 -> 1 [labeldistance=2.5, labelangle=45, headlabel="True"] ;
2 [label="BP_LOW <= 0.5\ngini = 0.147\nsamples = 62\nvalue = [[62, 0]\n[62, 0]\n[47, 15]\n[15, 47]\n[62, 0]]"] ;
1 -> 2 ;
3 [label="gini = 0.0\nsamples = 35\nvalue = [[35, 0]\n[35, 0]\n[35, 0]\n[0, 35]\n[35, 0]]"] ;
2 -> 3 ;
4 [label="Cholesterol_NORMAL <= 0.5\ngini = 0.198\nsamples = 27\nvalue = [[27, 0]\n[27, 0]\n[12, 15]\n[15, 12]\n[27, 0]]"] ;
2 -> 4 ;
5 [label="gini = 0.0\nsamples = 15\nvalue = [[15, 0]\n[15, 0]\n[0, 15]\n[15, 0]\n[15, 0]]"] ;
4 -> 5 ;
6 [label="gini = 0.0\nsamples = 12\nvalue = [[12, 0]\n[12, 0]\n[12, 0]\n[0, 12]\n[12, 0]]"] ;
4 -> 6 ;
7 [label="Age <= 51.5\ngini = 0.187\nsamples = 35\nvalue = [[13, 22]\n[22, 13]\n[35, 0]\n[35, 0]\n[35, 0]]"] ;
1 -> 7 ;
8 [label="gini = 0.0\nsamples = 22\nvalue = [[0, 22]\n[22, 0]\n[22, 0]\n[22, 0]\n[22, 0]]"] ;
7 -> 8 ;
9 [label="gini = 0.0\nsamples = 13\nvalue = [[13, 0]\n[0, 13]\n[13, 0]\n[13, 0]\n[13, 0]]"] ;
7 -> 9 ;
10 [label="gini = 0.0\nsamples = 83\nvalue = [[83, 0]\n[83, 0]\n[83, 0]\n[83, 0]\n[0, 83]]"] ;
0 -> 10 [labeldistance=2.5, labelangle=-45, headlabel="False"] ;
}